<?xml version="1.0"?>
<opencv_storage>
<cascade>
  <stageType>BOOST</stageType>
  <featureType>HAAR</featureType>
  <height>20</height>
  <width>50</width>
  <stageParams>
    <boostType>GAB</boostType>
    <minHitRate>9.9500000476837158e-01</minHitRate>
    <maxFalseAlarm>5.0000000000000000e-01</maxFalseAlarm>
    <weightTrimRate>9.4999998807907104e-01</weightTrimRate>
    <maxDepth>1</maxDepth>
    <maxWeakCount>100</maxWeakCount></stageParams>
  <featureParams>
    <maxCatCount>0</maxCatCount>
    <featSize>1</featSize>
    <mode>BASIC</mode></featureParams>
  <stageNum>20</stageNum>
  <stages>
    <!-- stage 0 -->
    <_>
      <maxWeakCount>6</maxWeakCount>
      <stageThreshold>-1.3309664726257324e+00</stageThreshold>
      <weakClassifiers>
        <_>
          <internalNodes>
            0 -1 35 2.9910884797573090e-02</internalNodes>
          <leafValues>
            -8.2392776012420654e-01 2.4409449100494385e-01</leafValues></_>
        <_>
          <internalNodes>
            0 -1 54 1.3509037904441357e-02</internalNodes>
          <leafValues>
            -5.2497440576553345e-01 6.7902016639709473e-01</leafValues></_>
        <_>
          <internalNodes>
            0 -1 1 -1.6889210790395737e-02</internalNodes>
          <leafValues>
            5.1159024238586426e-01 -4.9771335721015930e-01</leafValues></_>
        <_>
          <internalNodes>
            0 -1 121 -3.3119332510977983e-03</internalNodes>
          <leafValues>
            5.1098293066024780e-01 -4.8367741703987122e-01</leafValues></_>
        <_>
          <internalNodes>
            0 -1 159 1.9391126697883010e-03</internalNodes>
          <leafValues>
            -3.1548872590065002e-01 7.6173269748687744e-01</leafValues></_>
        <_>
          <internalNodes>
            0 -1 105 -1.0774924885481596e-03</internalNodes>
          <leafValues>
            4.2317727208137512e-01 -6.8914878368377686e-01</leafValues></_></weakClassifiers></_>
    <!-- stage 1 -->
    <_>
      <maxWeakCount>6</maxWeakCount>
      <stageThreshold>-1.4802697896957397e+00</stageThreshold>
      <weakClassifiers>
        <_>
          <internalNodes>
            0 -1 110 -3.6137964576482773e-02</internalNodes>
          <leafValues>
            1.4410480856895447e-01 -7.1794873476028442e-01</leafValues></_>
        <_>
          <internalNodes>
            0 -1 18 -1.2758601456880569e-02</internalNodes>
          <leafValues>
            4.5162579417228699e-01 -4.7849220037460327e-01</leafValues></_>
        <_>
          <internalNodes>
            0 -1 77 5.3638592362403870e-03</internalNodes>
          <leafValues>
            -6.3562530279159546e-01 2.9436597228050232e-01</leafValues></_>
        <_>
          <internalNodes>
            0 -1 102 4.8985276371240616e-03</internalNodes>
          <leafValues>
            -4.9498322606086731e-01 3.3583435416221619e-01</leafValues></_>
        <_>
          <internalNodes>
            0 -1 32 -2.1700952202081680e-03</internalNodes>
          <leafValues>
            3.8005545735359192e-01 -4.6400195360183716e-01</leafValues></_>
        <_>
          <internalNodes>
            0 -1 150 1.3358756899833679e-02</internalNodes>
          <leafValues>
            3.2005521655082703e-01 -4.6326714754104614e-01</leafValues></_></weakClassifiers></_>
    <!-- stage 2 -->
    <_>
      <maxWeakCount>7</maxWeakCount>
      <stageThreshold>-1.4794570207595825e+00</stageThreshold>
      <weakClassifiers>
        <_>
          <internalNodes>
            0 -1 124 -4.3218685314059258e-03</internalNodes>
          <leafValues>
            8.0000001192092896e-01 -6.4154106378555298e-01</leafValues></_>
        <_>
          <internalNodes>
            0 -1 119 -1.1314594885334373e-03</internalNodes>
          <leafValues>
            7.3227924108505249e-01 -3.9528208971023560e-01</leafValues></_>
        <_>
          <internalNodes>
            0 -1 49 8.2773059606552124e-02</internalNodes>
          <leafValues>
            -4.0800577402114868e-01 6.6187566518783569e-01</leafValues></_>
        <_>
          <internalNodes>
            0 -1 112 -2.9991767369210720e-03</internalNodes>
          <leafValues>
            8.3371937274932861e-01 -2.5539222359657288e-01</leafValues></_>
        <_>
          <internalNodes>
            0 -1 132 -6.5479154000058770e-04</internalNodes>
          <leafValues>
            7.5404793024063110e-01 -3.0123707652091980e-01</leafValues></_>
        <_>
          <internalNodes>
            0 -1 66 -2.1408142056316137e-03</internalNodes>
          <leafValues>
            8.5439950227737427e-01 -2.1890465915203094e-01</leafValues></_>
        <_>
          <internalNodes>
            0 -1 161 -8.0814938992261887e-03</internalNodes>
          <leafValues>
            7.4090582132339478e-01 -3.1105178594589233e-01</leafValues></_></weakClassifiers></_>
    <!-- stage 3 -->
    <_>
      <maxWeakCount>8</maxWeakCount>
      <stageThreshold>-1.4882167577743530e+00</stageThreshold>
      <weakClassifiers>
        <_>
          <internalNodes>
            0 -1 4 3.4868221264332533e-03</internalNodes>
          <leafValues>
            -6.6120219230651855e-01 4.0540540218353271e-01</leafValues></_>
        <_>
          <internalNodes>
            0 -1 106 -1.2490528170019388e-03</internalNodes>
          <leafValues>
            7.7654206752777100e-01 -3.2414403557777405e-01</leafValues></_>
        <_>
          <internalNodes>
            0 -1 113 -1.9469648832455277e-03</internalNodes>
          <leafValues>
            6.3836908340454102e-01 -3.4004616737365723e-01</leafValues></_>
        <_>
          <internalNodes>
            0 -1 47 -1.9402544945478439e-02</internalNodes>
          <leafValues>
            -9.4120699167251587e-01 2.6021161675453186e-01</leafValues></_>
        <_>
          <internalNodes>
            0 -1 111 1.2748211156576872e-03</internalNodes>
          <leafValues>
            -2.5601774454116821e-01 8.7043589353561401e-01</leafValues></_>
        <_>
          <internalNodes>
            0 -1 52 6.6803949885070324e-03</internalNodes>
          <leafValues>
            -1.9314515590667725e-01 8.9648067951202393e-01</leafValues></_>
        <_>
          <internalNodes>
            0 -1 50 -8.0570355057716370e-03</internalNodes>
          <leafValues>
            8.6848562955856323e-01 -2.7399012446403503e-01</leafValues></_>
        <_>
          <internalNodes>
            0 -1 10 5.3220823407173157e-02</internalNodes>
          <leafValues>
            3.0011704564094543e-01 -8.0003589391708374e-01</leafValues></_></weakClassifiers></_>
    <!-- stage 4 -->
    <_>
      <maxWeakCount>6</maxWeakCount>
      <stageThreshold>-1.4620995521545410e+00</stageThreshold>
      <weakClassifiers>
        <_>
          <internalNodes>
            0 -1 175 -4.6925265341997147e-03</internalNodes>
          <leafValues>
            7.3033708333969116e-01 -6.0526317358016968e-01</leafValues></_>
        <_>
          <internalNodes>
            0 -1 91 -4.2736090719699860e-02</internalNodes>
          <leafValues>
            3.9938870072364807e-01 -5.8239191770553589e-01</leafValues></_>
        <_>
          <internalNodes>
            0 -1 93 -1.0563286487013102e-03</internalNodes>
          <leafValues>
            7.1319741010665894e-01 -3.2377335429191589e-01</leafValues></_>
        <_>
          <internalNodes>
            0 -1 100 -2.3549664765596390e-03</internalNodes>
          <leafValues>
            9.2010390758514404e-01 -2.7077299356460571e-01</leafValues></_>
        <_>
          <internalNodes>
            0 -1 65 3.0497085303068161e-02</internalNodes>
          <leafValues>
            -4.5906731486320496e-01 4.2244431376457214e-01</leafValues></_>
        <_>
          <internalNodes>
            0 -1 109 -8.0729817273095250e-04</internalNodes>
          <leafValues>
            9.1908413171768188e-01 -2.0261143147945404e-01</leafValues></_></weakClassifiers></_>
    <!-- stage 5 -->
    <_>
      <maxWeakCount>10</maxWeakCount>
      <stageThreshold>-1.6592441797256470e+00</stageThreshold>
      <weakClassifiers>
        <_>
          <internalNodes>
            0 -1 23 -2.5889808312058449e-02</internalNodes>
          <leafValues>
            1.5183246135711670e-01 -6.5612649917602539e-01</leafValues></_>
        <_>
          <internalNodes>
            0 -1 134 3.3795952331274748e-03</internalNodes>
          <leafValues>
            -3.2110357284545898e-01 5.4409486055374146e-01</leafValues></_>
        <_>
          <internalNodes>
            0 -1 122 -6.6532902419567108e-03</internalNodes>
          <leafValues>
            7.1010738611221313e-01 -2.0902557671070099e-01</leafValues></_>
        <_>
          <internalNodes>
            0 -1 90 5.5057941935956478e-03</internalNodes>
          <leafValues>
            -3.6795246601104736e-01 3.6468392610549927e-01</leafValues></_>
        <_>
          <internalNodes>
            0 -1 162 2.5560619542375207e-04</internalNodes>
          <leafValues>
            2.3267948627471924e-01 -5.3331130743026733e-01</leafValues></_>
        <_>
          <internalNodes>
            0 -1 85 -6.6335871815681458e-04</internalNodes>
          <leafValues>
            5.5627423524856567e-01 -2.4273860454559326e-01</leafValues></_>
        <_>
          <internalNodes>
            0 -1 136 1.8251163419336081e-03</internalNodes>
          <leafValues>
            -2.1653726696968079e-01 6.4576286077499390e-01</leafValues></_>
        <_>
          <internalNodes>
            0 -1 37 -1.4635807834565639e-02</internalNodes>
          <leafValues>
            4.4911378622055054e-01 -2.9396539926528931e-01</leafValues></_>
        <_>
          <internalNodes>
            0 -1 144 1.1927117593586445e-03</internalNodes>
          <leafValues>
            -2.1287761628627777e-01 6.1052501201629639e-01</leafValues></_>
        <_>
          <internalNodes>
            0 -1 160 2.4015605449676514e-03</internalNodes>
          <leafValues>
            -2.3389683663845062e-01 5.5582463741302490e-01</leafValues></_></weakClassifiers></_>
    <!-- stage 6 -->
    <_>
      <maxWeakCount>9</maxWeakCount>
      <stageThreshold>-1.1182971000671387e+00</stageThreshold>
      <weakClassifiers>
        <_>
          <internalNodes>
            0 -1 3 7.1961814537644386e-03</internalNodes>
          <leafValues>
            -6.0273975133895874e-01 4.3362832069396973e-01</leafValues></_>
        <_>
          <internalNodes>
            0 -1 148 -1.3841119362041354e-03</internalNodes>
          <leafValues>
            4.6264490485191345e-01 -2.9164844751358032e-01</leafValues></_>
        <_>
          <internalNodes>
            0 -1 40 -8.7584797292947769e-03</internalNodes>
          <leafValues>
            5.0210648775100708e-01 -2.4367529153823853e-01</leafValues></_>
        <_>
          <internalNodes>
            0 -1 82 1.3159033842384815e-02</internalNodes>
          <leafValues>
            -4.0658077597618103e-01 3.2980716228485107e-01</leafValues></_>
        <_>
          <internalNodes>
            0 -1 11 -2.5349182542413473e-03</internalNodes>
          <leafValues>
            5.3696215152740479e-01 -2.1738059818744659e-01</leafValues></_>
        <_>
          <internalNodes>
            0 -1 153 8.6269713938236237e-03</internalNodes>
          <leafValues>
            -1.4441688358783722e-01 7.1078360080718994e-01</leafValues></_>
        <_>
          <internalNodes>
            0 -1 15 -1.9603164400905371e-03</internalNodes>
          <leafValues>
            4.3879139423370361e-01 -2.5172930955886841e-01</leafValues></_>
        <_>
          <internalNodes>
            0 -1 39 3.0412909109145403e-04</internalNodes>
          <leafValues>
            2.3032650351524353e-01 -6.3127094507217407e-01</leafValues></_>
        <_>
          <internalNodes>
            0 -1 68 -5.5656244512647390e-04</internalNodes>
          <leafValues>
            -8.6246955394744873e-01 1.1902671307325363e-01</leafValues></_></weakClassifiers></_>
    <!-- stage 7 -->
    <_>
      <maxWeakCount>12</maxWeakCount>
      <stageThreshold>-1.3066904544830322e+00</stageThreshold>
      <weakClassifiers>
        <_>
          <internalNodes>
            0 -1 171 -7.1073332801461220e-03</internalNodes>
          <leafValues>
            6.6666668653488159e-01 -5.3846156597137451e-01</leafValues></_>
        <_>
          <internalNodes>
            0 -1 172 5.0177741795778275e-03</internalNodes>
          <leafValues>
            -3.1019517779350281e-01 5.4156136512756348e-01</leafValues></_>
        <_>
          <internalNodes>
            0 -1 16 6.4126513898372650e-03</internalNodes>
          <leafValues>
            -2.8521826863288879e-01 3.9030027389526367e-01</leafValues></_>
        <_>
          <internalNodes>
            0 -1 143 2.7602741029113531e-03</internalNodes>
          <leafValues>
            -1.5015192329883575e-01 7.3913186788558960e-01</leafValues></_>
        <_>
          <internalNodes>
            0 -1 56 2.7969381771981716e-03</internalNodes>
          <leafValues>
            -1.8522851169109344e-01 5.8596462011337280e-01</leafValues></_>
        <_>
          <internalNodes>
            0 -1 76 -1.4834553003311157e-02</internalNodes>
          <leafValues>
            2.5237220525741577e-01 -5.1380079984664917e-01</leafValues></_>
        <_>
          <internalNodes>
            0 -1 131 1.2674941681325436e-03</internalNodes>
          <leafValues>
            -2.3839290440082550e-01 4.7800904512405396e-01</leafValues></_>
        <_>
          <internalNodes>
            0 -1 120 5.1668044179677963e-03</internalNodes>
          <leafValues>
            -3.3135840296745300e-01 4.1197675466537476e-01</leafValues></_>
        <_>
          <internalNodes>
            0 -1 106 -1.2510047527030110e-03</internalNodes>
          <leafValues>
            5.8937358856201172e-01 -2.1179108321666718e-01</leafValues></_>
        <_>
          <internalNodes>
            0 -1 69 -4.3609635904431343e-03</internalNodes>
          <leafValues>
            4.7792661190032959e-01 -2.3892594873905182e-01</leafValues></_>
        <_>
          <internalNodes>
            0 -1 57 9.7562409937381744e-03</internalNodes>
          <leafValues>
            2.1500436961650848e-01 -5.8932048082351685e-01</leafValues></_>
        <_>
          <internalNodes>
            0 -1 67 -2.6369318366050720e-03</internalNodes>
          <leafValues>
            -6.8830043077468872e-01 1.7738159000873566e-01</leafValues></_></weakClassifiers></_>
    <!-- stage 8 -->
    <_>
      <maxWeakCount>8</maxWeakCount>
      <stageThreshold>-1.0011898279190063e+00</stageThreshold>
      <weakClassifiers>
        <_>
          <internalNodes>
            0 -1 167 3.6585514899343252e-03</internalNodes>
          <leafValues>
            -5.3600001335144043e-01 4.4444444775581360e-01</leafValues></_>
        <_>
          <internalNodes>
            0 -1 88 -2.3983982391655445e-03</internalNodes>
          <leafValues>
            3.0684831738471985e-01 -4.2044663429260254e-01</leafValues></_>
        <_>
          <internalNodes>
            0 -1 181 -1.2278347276151180e-03</internalNodes>
          <leafValues>
            -7.7382439374923706e-01 1.2180086225271225e-01</leafValues></_>
        <_>
          <internalNodes>
            0 -1 73 -1.7345704138278961e-02</internalNodes>
          <leafValues>
            -9.3034631013870239e-01 1.1813464015722275e-01</leafValues></_>
        <_>
          <internalNodes>
            0 -1 107 -2.7387149166315794e-03</internalNodes>
          <leafValues>
            6.2672913074493408e-01 -1.9987286627292633e-01</leafValues></_>
        <_>
          <internalNodes>
            0 -1 45 4.0964921936392784e-03</internalNodes>
          <leafValues>
            2.0299695432186127e-01 -5.2349889278411865e-01</leafValues></_>
        <_>
          <internalNodes>
            0 -1 21 1.7748137470334768e-03</internalNodes>
          <leafValues>
            -2.5018650293350220e-01 5.0364512205123901e-01</leafValues></_>
        <_>
          <internalNodes>
            0 -1 99 9.6990521997213364e-03</internalNodes>
          <leafValues>
            1.6530151665210724e-01 -6.9588804244995117e-01</leafValues></_></weakClassifiers></_>
    <!-- stage 9 -->
    <_>
      <maxWeakCount>10</maxWeakCount>
      <stageThreshold>-1.3037174940109253e+00</stageThreshold>
      <weakClassifiers>
        <_>
          <internalNodes>
            0 -1 125 -7.2124102152884007e-03</internalNodes>
          <leafValues>
            -3.8910505827516317e-03 -6.8636363744735718e-01</leafValues></_>
        <_>
          <internalNodes>
            0 -1 173 -4.7656190581619740e-03</internalNodes>
          <leafValues>
            6.7379808425903320e-01 -2.3470558226108551e-01</leafValues></_>
        <_>
          <internalNodes>
            0 -1 44 -1.1837403289973736e-02</internalNodes>
          <leafValues>
            -8.4313094615936279e-01 1.6503059864044189e-01</leafValues></_>
        <_>
          <internalNodes>
            0 -1 27 -2.2154501639306545e-03</internalNodes>
          <leafValues>
            2.9435721039772034e-01 -3.6634689569473267e-01</leafValues></_>
        <_>
          <internalNodes>
            0 -1 141 -1.6362741589546204e-03</internalNodes>
          <leafValues>
            2.8296014666557312e-01 -3.9471945166587830e-01</leafValues></_>
        <_>
          <internalNodes>
            0 -1 31 -4.2079746723175049e-02</internalNodes>
          <leafValues>
            -8.0271798372268677e-01 1.2299555540084839e-01</leafValues></_>
        <_>
          <internalNodes>
            0 -1 104 -2.9847710393369198e-03</internalNodes>
          <leafValues>
            5.6540948152542114e-01 -2.4090871214866638e-01</leafValues></_>
        <_>
          <internalNodes>
            0 -1 74 3.2354259747080505e-04</internalNodes>
          <leafValues>
            1.8734383583068848e-01 -6.7017090320587158e-01</leafValues></_>
        <_>
          <internalNodes>
            0 -1 20 -2.0388545817695558e-04</internalNodes>
          <leafValues>
            -6.8792533874511719e-01 1.5656381845474243e-01</leafValues></_>
        <_>
          <internalNodes>
            0 -1 0 -4.4369269162416458e-03</internalNodes>
          <leafValues>
            -6.2332731485366821e-01 1.6722808778285980e-01</leafValues></_></weakClassifiers></_>
    <!-- stage 10 -->
    <_>
      <maxWeakCount>10</maxWeakCount>
      <stageThreshold>-1.2357759475708008e+00</stageThreshold>
      <weakClassifiers>
        <_>
          <internalNodes>
            0 -1 71 -6.5497579053044319e-03</internalNodes>
          <leafValues>
            7.9661017656326294e-01 -5.4858934879302979e-01</leafValues></_>
        <_>
          <internalNodes>
            0 -1 78 -1.4408393763005733e-03</internalNodes>
          <leafValues>
            4.9491325020790100e-01 -3.3118948340415955e-01</leafValues></_>
        <_>
          <internalNodes>
            0 -1 34 1.9393667578697205e-02</internalNodes>
          <leafValues>
            1.8919661641120911e-01 -8.4771960973739624e-01</leafValues></_>
        <_>
          <internalNodes>
            0 -1 126 2.5309785269200802e-03</internalNodes>
          <leafValues>
            -2.5889071822166443e-01 4.3908271193504333e-01</leafValues></_>
        <_>
          <internalNodes>
            0 -1 164 -7.2381775826215744e-03</internalNodes>
          <leafValues>
            7.2866505384445190e-01 -1.5243165194988251e-01</leafValues></_>
        <_>
          <internalNodes>
            0 -1 33 -2.2516967728734016e-03</internalNodes>
          <leafValues>
            3.7735632061958313e-01 -3.0991575121879578e-01</leafValues></_>
        <_>
          <internalNodes>
            0 -1 92 -1.8259838689118624e-03</internalNodes>
          <leafValues>
            5.1382714509963989e-01 -2.4553757905960083e-01</leafValues></_>
        <_>
          <internalNodes>
            0 -1 85 -8.6869602091610432e-04</internalNodes>
          <leafValues>
            5.3431612253189087e-01 -2.3733231425285339e-01</leafValues></_>
        <_>
          <internalNodes>
            0 -1 138 1.0488332482054830e-03</internalNodes>
          <leafValues>
            1.4648258686065674e-01 -8.5388809442520142e-01</leafValues></_>
        <_>
          <internalNodes>
            0 -1 84 6.4646042883396149e-03</internalNodes>
          <leafValues>
            1.2755683064460754e-01 -8.2354205846786499e-01</leafValues></_></weakClassifiers></_>
    <!-- stage 11 -->
    <_>
      <maxWeakCount>14</maxWeakCount>
      <stageThreshold>-1.3216125965118408e+00</stageThreshold>
      <weakClassifiers>
        <_>
          <internalNodes>
            0 -1 26 -8.6611937731504440e-03</internalNodes>
          <leafValues>
            -1.1551155149936676e-01 -6.8020302057266235e-01</leafValues></_>
        <_>
          <internalNodes>
            0 -1 59 1.4188053086400032e-02</internalNodes>
          <leafValues>
            5.9725478291511536e-02 -8.5072422027587891e-01</leafValues></_>
        <_>
          <internalNodes>
            0 -1 149 2.8649359010159969e-03</internalNodes>
          <leafValues>
            -2.1506752073764801e-01 4.7681903839111328e-01</leafValues></_>
        <_>
          <internalNodes>
            0 -1 114 -3.7936940789222717e-03</internalNodes>
          <leafValues>
            6.5991234779357910e-01 -1.4560116827487946e-01</leafValues></_>
        <_>
          <internalNodes>
            0 -1 139 -1.4746505767107010e-02</internalNodes>
          <leafValues>
            4.1057741641998291e-01 -2.6043725013732910e-01</leafValues></_>
        <_>
          <internalNodes>
            0 -1 36 2.8727953322231770e-03</internalNodes>
          <leafValues>
            -3.3014366030693054e-01 3.1959339976310730e-01</leafValues></_>
        <_>
          <internalNodes>
            0 -1 115 2.8335554525256157e-03</internalNodes>
          <leafValues>
            -2.3052798211574554e-01 4.7034788131713867e-01</leafValues></_>
        <_>
          <internalNodes>
            0 -1 86 2.4411245249211788e-03</internalNodes>
          <leafValues>
            -4.3746712803840637e-01 2.7759009599685669e-01</leafValues></_>
        <_>
          <internalNodes>
            0 -1 17 -5.8099161833524704e-03</internalNodes>
          <leafValues>
            2.3832479119300842e-01 -4.8185923695564270e-01</leafValues></_>
        <_>
          <internalNodes>
            0 -1 80 -1.3868592213839293e-03</internalNodes>
          <leafValues>
            3.9375731348991394e-01 -2.8217476606369019e-01</leafValues></_>
        <_>
          <internalNodes>
            0 -1 42 2.3978836543392390e-04</internalNodes>
          <leafValues>
            1.5784335136413574e-01 -6.6753321886062622e-01</leafValues></_>
        <_>
          <internalNodes>
            0 -1 94 -1.3811392709612846e-03</internalNodes>
          <leafValues>
            7.1283042430877686e-01 -1.8408928811550140e-01</leafValues></_>
        <_>
          <internalNodes>
            0 -1 163 -1.2319264933466911e-03</internalNodes>
          <leafValues>
            -8.8491904735565186e-01 1.3677924871444702e-01</leafValues></_>
        <_>
          <internalNodes>
            0 -1 117 5.0460556522011757e-03</internalNodes>
          <leafValues>
            -2.1044412255287170e-01 5.7574504613876343e-01</leafValues></_></weakClassifiers></_>
    <!-- stage 12 -->
    <_>
      <maxWeakCount>9</maxWeakCount>
      <stageThreshold>-1.0006552934646606e+00</stageThreshold>
      <weakClassifiers>
        <_>
          <internalNodes>
            0 -1 108 3.0858577229082584e-03</internalNodes>
          <leafValues>
            -5.3646677732467651e-01 3.4999999403953552e-01</leafValues></_>
        <_>
          <internalNodes>
            0 -1 168 -4.1706431657075882e-03</internalNodes>
          <leafValues>
            5.9554839134216309e-01 -2.0804247260093689e-01</leafValues></_>
        <_>
          <internalNodes>
            0 -1 24 1.2069689109921455e-03</internalNodes>
          <leafValues>
            -3.6143916845321655e-01 2.6942670345306396e-01</leafValues></_>
        <_>
          <internalNodes>
            0 -1 133 -1.3538983184844255e-03</internalNodes>
          <leafValues>
            4.6438255906105042e-01 -2.0511563122272491e-01</leafValues></_>
        <_>
          <internalNodes>
            0 -1 97 3.7723334389738739e-04</internalNodes>
          <leafValues>
            1.3848651945590973e-01 -7.9181045293807983e-01</leafValues></_>
        <_>
          <internalNodes>
            0 -1 127 -1.1186657939106226e-03</internalNodes>
          <leafValues>
            5.5078685283660889e-01 -1.8668100237846375e-01</leafValues></_>
        <_>
          <internalNodes>
            0 -1 64 -3.3244403311982751e-04</internalNodes>
          <leafValues>
            5.8391726016998291e-01 -1.8322013318538666e-01</leafValues></_>
        <_>
          <internalNodes>
            0 -1 137 -1.4920608373358846e-03</internalNodes>
          <leafValues>
            4.7796788811683655e-01 -2.2173234820365906e-01</leafValues></_>
        <_>
          <internalNodes>
            0 -1 5 -7.4437103467062116e-04</internalNodes>
          <leafValues>
            -5.9377932548522949e-01 1.7652006447315216e-01</leafValues></_></weakClassifiers></_>
    <!-- stage 13 -->
    <_>
      <maxWeakCount>12</maxWeakCount>
      <stageThreshold>-1.0756559371948242e+00</stageThreshold>
      <weakClassifiers>
        <_>
          <internalNodes>
            0 -1 145 -2.9791001230478287e-02</internalNodes>
          <leafValues>
            1.0126582533121109e-01 -5.9183675050735474e-01</leafValues></_>
        <_>
          <internalNodes>
            0 -1 6 5.5572937708348036e-04</internalNodes>
          <leafValues>
            1.0846572369337082e-01 -7.1178311109542847e-01</leafValues></_>
        <_>
          <internalNodes>
            0 -1 83 -1.0596835054457188e-03</internalNodes>
          <leafValues>
            5.4128557443618774e-01 -2.1026755869388580e-01</leafValues></_>
        <_>
          <internalNodes>
            0 -1 178 -3.7938491441309452e-03</internalNodes>
          <leafValues>
            6.2898457050323486e-01 -1.5351359546184540e-01</leafValues></_>
        <_>
          <internalNodes>
            0 -1 118 6.4667472615838051e-03</internalNodes>
          <leafValues>
            2.0540685951709747e-01 -7.4899971485137939e-01</leafValues></_>
        <_>
          <internalNodes>
            0 -1 140 -2.1674828603863716e-03</internalNodes>
          <leafValues>
            5.1252526044845581e-01 -2.4659800529479980e-01</leafValues></_>
        <_>
          <internalNodes>
            0 -1 158 -2.1565749775618315e-03</internalNodes>
          <leafValues>
            6.2520337104797363e-01 -1.7455181479454041e-01</leafValues></_>
        <_>
          <internalNodes>
            0 -1 152 3.5457211197353899e-04</internalNodes>
          <leafValues>
            2.1430030465126038e-01 -5.9404206275939941e-01</leafValues></_>
        <_>
          <internalNodes>
            0 -1 2 3.7692254409193993e-03</internalNodes>
          <leafValues>
            -3.0425167083740234e-01 4.1287255287170410e-01</leafValues></_>
        <_>
          <internalNodes>
            0 -1 95 3.3979078289121389e-03</internalNodes>
          <leafValues>
            -3.5967412590980530e-01 3.1876614689826965e-01</leafValues></_>
        <_>
          <internalNodes>
            0 -1 81 3.0279383063316345e-02</internalNodes>
          <leafValues>
            1.4152915775775909e-01 -8.4530544281005859e-01</leafValues></_>
        <_>
          <internalNodes>
            0 -1 87 1.4211874222382903e-03</internalNodes>
          <leafValues>
            -2.9443785548210144e-01 4.4998687505722046e-01</leafValues></_></weakClassifiers></_>
    <!-- stage 14 -->
    <_>
      <maxWeakCount>10</maxWeakCount>
      <stageThreshold>-1.1960213184356689e+00</stageThreshold>
      <weakClassifiers>
        <_>
          <internalNodes>
            0 -1 46 2.7921779081225395e-02</internalNodes>
          <leafValues>
            -7.5449103116989136e-01 -1.4049586653709412e-01</leafValues></_>
        <_>
          <internalNodes>
            0 -1 165 -3.3105607144534588e-03</internalNodes>
          <leafValues>
            3.6260983347892761e-01 -3.0037951469421387e-01</leafValues></_>
        <_>
          <internalNodes>
            0 -1 166 -8.1987027078866959e-04</internalNodes>
          <leafValues>
            6.2812662124633789e-01 -1.6055019199848175e-01</leafValues></_>
        <_>
          <internalNodes>
            0 -1 53 8.0931149423122406e-03</internalNodes>
          <leafValues>
            1.3658030331134796e-01 -9.0344202518463135e-01</leafValues></_>
        <_>
          <internalNodes>
            0 -1 29 2.1862452849745750e-03</internalNodes>
          <leafValues>
            1.7995284497737885e-01 -5.2968472242355347e-01</leafValues></_>
        <_>
          <internalNodes>
            0 -1 135 -3.1540445052087307e-03</internalNodes>
          <leafValues>
            3.1341129541397095e-01 -3.6179512739181519e-01</leafValues></_>
        <_>
          <internalNodes>
            0 -1 9 -6.4197741448879242e-03</internalNodes>
          <leafValues>
            4.1391599178314209e-01 -2.7179133892059326e-01</leafValues></_>
        <_>
          <internalNodes>
            0 -1 58 1.8852062523365021e-02</internalNodes>
          <leafValues>
            -4.7628509998321533e-01 2.3144647479057312e-01</leafValues></_>
        <_>
          <internalNodes>
            0 -1 174 -6.0525658773258328e-04</internalNodes>
          <leafValues>
            -6.8581074476242065e-01 1.8888999521732330e-01</leafValues></_>
        <_>
          <internalNodes>
            0 -1 177 -5.5620470084249973e-04</internalNodes>
          <leafValues>
            3.5625663399696350e-01 -3.2084593176841736e-01</leafValues></_></weakClassifiers></_>
    <!-- stage 15 -->
    <_>
      <maxWeakCount>9</maxWeakCount>
      <stageThreshold>-1.1904886960983276e+00</stageThreshold>
      <weakClassifiers>
        <_>
          <internalNodes>
            0 -1 123 -8.9438622817397118e-03</internalNodes>
          <leafValues>
            6.6037738323211670e-01 -5.2484470605850220e-01</leafValues></_>
        <_>
          <internalNodes>
            0 -1 116 -6.3531058840453625e-03</internalNodes>
          <leafValues>
            6.6427886486053467e-01 -2.8862664103507996e-01</leafValues></_>
        <_>
          <internalNodes>
            0 -1 75 -1.0967593640089035e-02</internalNodes>
          <leafValues>
            -7.6554661989212036e-01 2.0048856735229492e-01</leafValues></_>
        <_>
          <internalNodes>
            0 -1 98 -4.0370989590883255e-03</internalNodes>
          <leafValues>
            7.0647460222244263e-01 -1.6983343660831451e-01</leafValues></_>
        <_>
          <internalNodes>
            0 -1 101 3.1045884825289249e-03</internalNodes>
          <leafValues>
            -2.8359478712081909e-01 4.7508630156517029e-01</leafValues></_>
        <_>
          <internalNodes>
            0 -1 151 -1.3865793123841286e-02</internalNodes>
          <leafValues>
            -6.6938215494155884e-01 2.1688248217105865e-01</leafValues></_>
        <_>
          <internalNodes>
            0 -1 70 -2.4208150804042816e-02</internalNodes>
          <leafValues>
            3.0915093421936035e-01 -4.2790454626083374e-01</leafValues></_>
        <_>
          <internalNodes>
            0 -1 142 2.4840718833729625e-04</internalNodes>
          <leafValues>
            1.4660760760307312e-01 -7.8120207786560059e-01</leafValues></_>
        <_>
          <internalNodes>
            0 -1 30 -1.3542011380195618e-01</internalNodes>
          <leafValues>
            -8.4572440385818481e-01 1.0946534574031830e-01</leafValues></_></weakClassifiers></_>
    <!-- stage 16 -->
    <_>
      <maxWeakCount>11</maxWeakCount>
      <stageThreshold>-1.3775517940521240e+00</stageThreshold>
      <weakClassifiers>
        <_>
          <internalNodes>
            0 -1 128 -2.4916268885135651e-02</internalNodes>
          <leafValues>
            7.5757575035095215e-01 -4.9397590756416321e-01</leafValues></_>
        <_>
          <internalNodes>
            0 -1 156 1.8102322064805776e-04</internalNodes>
          <leafValues>
            1.5047051012516022e-01 -6.1562538146972656e-01</leafValues></_>
        <_>
          <internalNodes>
            0 -1 156 -2.5286397431045771e-04</internalNodes>
          <leafValues>
            -4.6261656284332275e-01 1.9509339332580566e-01</leafValues></_>
        <_>
          <internalNodes>
            0 -1 180 2.7691753348335624e-04</internalNodes>
          <leafValues>
            -2.0719769597053528e-01 4.8566165566444397e-01</leafValues></_>
        <_>
          <internalNodes>
            0 -1 38 9.1566741466522217e-03</internalNodes>
          <leafValues>
            1.7922373116016388e-01 -6.2248122692108154e-01</leafValues></_>
        <_>
          <internalNodes>
            0 -1 170 -2.5087492540478706e-03</internalNodes>
          <leafValues>
            3.6195296049118042e-01 -2.7112922072410583e-01</leafValues></_>
        <_>
          <internalNodes>
            0 -1 179 -8.8182475883513689e-04</internalNodes>
          <leafValues>
            -8.0839967727661133e-01 1.3277998566627502e-01</leafValues></_>
        <_>
          <internalNodes>
            0 -1 41 -3.0147112905979156e-02</internalNodes>
          <leafValues>
            5.4582649469375610e-01 -1.9273139536380768e-01</leafValues></_>
        <_>
          <internalNodes>
            0 -1 14 9.6114296466112137e-03</internalNodes>
          <leafValues>
            -2.7642861008644104e-01 3.9899298548698425e-01</leafValues></_>
        <_>
          <internalNodes>
            0 -1 103 -8.6223948746919632e-03</internalNodes>
          <leafValues>
            8.9483237266540527e-01 -9.4593457877635956e-02</leafValues></_>
        <_>
          <internalNodes>
            0 -1 61 -2.6236558915115893e-04</internalNodes>
          <leafValues>
            -5.1677483320236206e-01 1.8717378377914429e-01</leafValues></_></weakClassifiers></_>
    <!-- stage 17 -->
    <_>
      <maxWeakCount>12</maxWeakCount>
      <stageThreshold>-1.1900062561035156e+00</stageThreshold>
      <weakClassifiers>
        <_>
          <internalNodes>
            0 -1 22 -5.4833292961120605e-03</internalNodes>
          <leafValues>
            6.8888890743255615e-01 -5.1226991415023804e-01</leafValues></_>
        <_>
          <internalNodes>
            0 -1 169 2.2552390582859516e-03</internalNodes>
          <leafValues>
            -2.7070331573486328e-01 5.0223553180694580e-01</leafValues></_>
        <_>
          <internalNodes>
            0 -1 51 -2.1333829499781132e-03</internalNodes>
          <leafValues>
            3.3930215239524841e-01 -3.0271720886230469e-01</leafValues></_>
        <_>
          <internalNodes>
            0 -1 154 8.2872837083414197e-05</internalNodes>
          <leafValues>
            2.1176771819591522e-01 -5.1265460252761841e-01</leafValues></_>
        <_>
          <internalNodes>
            0 -1 130 -3.3565715420991182e-03</internalNodes>
          <leafValues>
            7.0179283618927002e-01 -1.2666098773479462e-01</leafValues></_>
        <_>
          <internalNodes>
            0 -1 146 -2.1895442623645067e-03</internalNodes>
          <leafValues>
            4.8604831099510193e-01 -2.3355413973331451e-01</leafValues></_>
        <_>
          <internalNodes>
            0 -1 62 2.9262545285746455e-04</internalNodes>
          <leafValues>
            2.0518837869167328e-01 -5.0233745574951172e-01</leafValues></_>
        <_>
          <internalNodes>
            0 -1 89 -6.6510634496808052e-03</internalNodes>
          <leafValues>
            6.3059449195861816e-01 -1.6702561080455780e-01</leafValues></_>
        <_>
          <internalNodes>
            0 -1 96 4.5890914043411613e-04</internalNodes>
          <leafValues>
            -2.3879602551460266e-01 5.1634234189987183e-01</leafValues></_>
        <_>
          <internalNodes>
            0 -1 7 -3.7823838647454977e-04</internalNodes>
          <leafValues>
            -6.0063117742538452e-01 2.2787638008594513e-01</leafValues></_>
        <_>
          <internalNodes>
            0 -1 25 8.5946952458471060e-04</internalNodes>
          <leafValues>
            -3.2823529839515686e-01 3.7676304578781128e-01</leafValues></_>
        <_>
          <internalNodes>
            0 -1 8 -3.6833446938544512e-04</internalNodes>
          <leafValues>
            3.7217056751251221e-01 -3.2508409023284912e-01</leafValues></_></weakClassifiers></_>
    <!-- stage 18 -->
    <_>
      <maxWeakCount>10</maxWeakCount>
      <stageThreshold>-1.1476517915725708e+00</stageThreshold>
      <weakClassifiers>
        <_>
          <internalNodes>
            0 -1 13 -2.2682361304759979e-02</internalNodes>
          <leafValues>
            1.2195122241973877e-01 -6.6666668653488159e-01</leafValues></_>
        <_>
          <internalNodes>
            0 -1 83 -8.9027354260906577e-04</internalNodes>
          <leafValues>
            5.6382566690444946e-01 -2.9200756549835205e-01</leafValues></_>
        <_>
          <internalNodes>
            0 -1 155 3.3434240322094411e-05</internalNodes>
          <leafValues>
            4.2014858126640320e-01 -3.4243094921112061e-01</leafValues></_>
        <_>
          <internalNodes>
            0 -1 43 1.0527063568588346e-04</internalNodes>
          <leafValues>
            2.6816296577453613e-01 -5.2588611841201782e-01</leafValues></_>
        <_>
          <internalNodes>
            0 -1 63 -2.3443237878382206e-03</internalNodes>
          <leafValues>
            6.5478616952896118e-01 -2.7888399362564087e-01</leafValues></_>
        <_>
          <internalNodes>
            0 -1 12 7.9362263204529881e-04</internalNodes>
          <leafValues>
            -3.7709611654281616e-01 4.4396719336509705e-01</leafValues></_>
        <_>
          <internalNodes>
            0 -1 60 -2.5971193099394441e-04</internalNodes>
          <leafValues>
            -6.6127872467041016e-01 2.3817428946495056e-01</leafValues></_>
        <_>
          <internalNodes>
            0 -1 28 1.3635346840601414e-04</internalNodes>
          <leafValues>
            -2.5874751806259155e-01 7.4001538753509521e-01</leafValues></_>
        <_>
          <internalNodes>
            0 -1 147 -4.2352965101599693e-04</internalNodes>
          <leafValues>
            4.8247161507606506e-01 -3.3896267414093018e-01</leafValues></_>
        <_>
          <internalNodes>
            0 -1 79 -1.0446711676195264e-03</internalNodes>
          <leafValues>
            -7.5832223892211914e-01 2.1624566614627838e-01</leafValues></_></weakClassifiers></_>
    <!-- stage 19 -->
    <_>
      <maxWeakCount>7</maxWeakCount>
      <stageThreshold>-1.2241437435150146e+00</stageThreshold>
      <weakClassifiers>
        <_>
          <internalNodes>
            0 -1 129 -1.4061478432267904e-03</internalNodes>
          <leafValues>
            7.7777779102325439e-01 -5.9415584802627563e-01</leafValues></_>
        <_>
          <internalNodes>
            0 -1 72 -1.7652366310358047e-02</internalNodes>
          <leafValues>
            3.6165755987167358e-01 -5.5525088310241699e-01</leafValues></_>
        <_>
          <internalNodes>
            0 -1 157 3.1354272505268455e-04</internalNodes>
          <leafValues>
            6.0276037454605103e-01 -3.7270542979240417e-01</leafValues></_>
        <_>
          <internalNodes>
            0 -1 55 -5.0611542537808418e-03</internalNodes>
          <leafValues>
            -7.6457238197326660e-01 3.1607362627983093e-01</leafValues></_>
        <_>
          <internalNodes>
            0 -1 176 1.5509906224906445e-03</internalNodes>
          <leafValues>
            -2.6902842521667480e-01 9.3638765811920166e-01</leafValues></_>
        <_>
          <internalNodes>
            0 -1 19 2.3442860692739487e-03</internalNodes>
          <leafValues>
            -2.6118668913841248e-01 8.2644945383071899e-01</leafValues></_>
        <_>
          <internalNodes>
            0 -1 48 -5.1144196186214685e-04</internalNodes>
          <leafValues>
            8.0307096242904663e-01 -2.9961836338043213e-01</leafValues></_></weakClassifiers></_></stages>
  <features>
    <_>
      <rects>
        <_>
          0 4 1 16 -1.</_>
        <_>
          0 12 1 8 2.</_></rects>
      <tilted>0</tilted></_>
    <_>
      <rects>
        <_>
          0 4 12 16 -1.</_>
        <_>
          6 4 6 16 2.</_></rects>
      <tilted>0</tilted></_>
    <_>
      <rects>
        <_>
          0 4 9 6 -1.</_>
        <_>
          0 6 9 2 3.</_></rects>
      <tilted>0</tilted></_>
    <_>
      <rects>
        <_>
          0 5 4 4 -1.</_>
        <_>
          2 5 2 4 2.</_></rects>
      <tilted>0</tilted></_>
    <_>
      <rects>
        <_>
          0 6 4 3 -1.</_>
        <_>
          2 6 2 3 2.</_></rects>
      <tilted>0</tilted></_>
    <_>
      <rects>
        <_>
          0 7 1 4 -1.</_>
        <_>
          0 9 1 2 2.</_></rects>
      <tilted>0</tilted></_>
    <_>
      <rects>
        <_>
          0 8 2 2 -1.</_>
        <_>
          0 9 2 1 2.</_></rects>
      <tilted>0</tilted></_>
    <_>
      <rects>
        <_>
          0 10 1 3 -1.</_>
        <_>
          0 11 1 1 3.</_></rects>
      <tilted>0</tilted></_>
    <_>
      <rects>
        <_>
          0 14 4 6 -1.</_>
        <_>
          2 14 2 6 2.</_></rects>
      <tilted>0</tilted></_>
    <_>
      <rects>
        <_>
          1 0 28 2 -1.</_>
        <_>
          15 0 14 2 2.</_></rects>
      <tilted>0</tilted></_>
    <_>
      <rects>
        <_>
          1 1 24 6 -1.</_>
        <_>
          13 1 12 6 2.</_></rects>
      <tilted>0</tilted></_>
    <_>
      <rects>
        <_>
          1 4 3 9 -1.</_>
        <_>
          2 4 1 9 3.</_></rects>
      <tilted>0</tilted></_>
    <_>
      <rects>
        <_>
          1 4 3 6 -1.</_>
        <_>
          1 6 3 2 3.</_></rects>
      <tilted>0</tilted></_>
    <_>
      <rects>
        <_>
          1 6 10 14 -1.</_>
        <_>
          6 6 5 14 2.</_></rects>
      <tilted>0</tilted></_>
    <_>
      <rects>
        <_>
          2 0 6 15 -1.</_>
        <_>
          4 0 2 15 3.</_></rects>
      <tilted>0</tilted></_>
    <_>
      <rects>
        <_>
          2 2 3 18 -1.</_>
        <_>
          3 2 1 18 3.</_></rects>
      <tilted>0</tilted></_>
    <_>
      <rects>
        <_>
          2 2 10 16 -1.</_>
        <_>
          2 2 5 8 2.</_>
        <_>
          7 10 5 8 2.</_></rects>
      <tilted>0</tilted></_>
    <_>
      <rects>
        <_>
          2 2 12 8 -1.</_>
        <_>
          8 2 6 8 2.</_></rects>
      <tilted>0</tilted></_>
    <_>
      <rects>
        <_>
          2 4 10 5 -1.</_>
        <_>
          7 4 5 5 2.</_></rects>
      <tilted>0</tilted></_>
    <_>
      <rects>
        <_>
          2 11 34 2 -1.</_>
        <_>
          2 11 17 1 2.</_>
        <_>
          19 12 17 1 2.</_></rects>
      <tilted>0</tilted></_>
    <_>
      <rects>
        <_>
          3 0 2 1 -1.</_>
        <_>
          4 0 1 1 2.</_></rects>
      <tilted>0</tilted></_>
    <_>
      <rects>
        <_>
          3 1 5 2 -1.</_>
        <_>
          3 2 5 1 2.</_></rects>
      <tilted>0</tilted></_>
    <_>
      <rects>
        <_>
          3 3 4 3 -1.</_>
        <_>
          3 4 4 1 3.</_></rects>
      <tilted>0</tilted></_>
    <_>
      <rects>
        <_>
          3 3 12 7 -1.</_>
        <_>
          7 3 4 7 3.</_></rects>
      <tilted>0</tilted></_>
    <_>
      <rects>
        <_>
          3 4 2 9 -1.</_>
        <_>
          3 7 2 3 3.</_></rects>
      <tilted>0</tilted></_>
    <_>
      <rects>
        <_>
          4 1 9 2 -1.</_>
        <_>
          4 2 9 1 2.</_></rects>
      <tilted>0</tilted></_>
    <_>
      <rects>
        <_>
          4 4 9 8 -1.</_>
        <_>
          7 4 3 8 3.</_></rects>
      <tilted>0</tilted></_>
    <_>
      <rects>
        <_>
          4 7 5 8 -1.</_>
        <_>
          4 11 5 4 2.</_></rects>
      <tilted>0</tilted></_>
    <_>
      <rects>
        <_>
          5 9 1 2 -1.</_>
        <_>
          5 10 1 1 2.</_></rects>
      <tilted>0</tilted></_>
    <_>
      <rects>
        <_>
          5 13 8 6 -1.</_>
        <_>
          5 13 4 3 2.</_>
        <_>
          9 16 4 3 2.</_></rects>
      <tilted>0</tilted></_>
    <_>
      <rects>
        <_>
          6 6 31 10 -1.</_>
        <_>
          6 11 31 5 2.</_></rects>
      <tilted>0</tilted></_>
    <_>
      <rects>
        <_>
          6 8 38 4 -1.</_>
        <_>
          25 8 19 4 2.</_></rects>
      <tilted>0</tilted></_>
    <_>
      <rects>
        <_>
          6 12 18 8 -1.</_>
        <_>
          12 12 6 8 3.</_></rects>
      <tilted>0</tilted></_>
    <_>
      <rects>
        <_>
          6 14 7 6 -1.</_>
        <_>
          6 16 7 2 3.</_></rects>
      <tilted>0</tilted></_>
    <_>
      <rects>
        <_>
          7 0 24 3 -1.</_>
        <_>
          15 0 8 3 3.</_></rects>
      <tilted>0</tilted></_>
    <_>
      <rects>
        <_>
          7 5 30 4 -1.</_>
        <_>
          17 5 10 4 3.</_></rects>
      <tilted>0</tilted></_>
    <_>
      <rects>
        <_>
          7 5 37 3 -1.</_>
        <_>
          7 6 37 1 3.</_></rects>
      <tilted>0</tilted></_>
    <_>
      <rects>
        <_>
          7 7 14 12 -1.</_>
        <_>
          7 7 7 6 2.</_>
        <_>
          14 13 7 6 2.</_></rects>
      <tilted>0</tilted></_>
    <_>
      <rects>
        <_>
          7 7 34 6 -1.</_>
        <_>
          7 10 34 3 2.</_></rects>
      <tilted>0</tilted></_>
    <_>
      <rects>
        <_>
          7 13 2 4 -1.</_>
        <_>
          8 13 1 4 2.</_></rects>
      <tilted>0</tilted></_>
    <_>
      <rects>
        <_>
          7 14 8 6 -1.</_>
        <_>
          7 16 8 2 3.</_></rects>
      <tilted>0</tilted></_>
    <_>
      <rects>
        <_>
          7 15 30 5 -1.</_>
        <_>
          17 15 10 5 3.</_></rects>
      <tilted>0</tilted></_>
    <_>
      <rects>
        <_>
          9 3 3 1 -1.</_>
        <_>
          10 3 1 1 3.</_></rects>
      <tilted>0</tilted></_>
    <_>
      <rects>
        <_>
          9 6 1 2 -1.</_>
        <_>
          9 7 1 1 2.</_></rects>
      <tilted>0</tilted></_>
    <_>
      <rects>
        <_>
          10 1 18 3 -1.</_>
        <_>
          16 1 6 3 3.</_></rects>
      <tilted>0</tilted></_>
    <_>
      <rects>
        <_>
          10 2 16 18 -1.</_>
        <_>
          10 2 8 9 2.</_>
        <_>
          18 11 8 9 2.</_></rects>
      <tilted>0</tilted></_>
    <_>
      <rects>
        <_>
          10 4 30 5 -1.</_>
        <_>
          20 4 10 5 3.</_></rects>
      <tilted>0</tilted></_>
    <_>
      <rects>
        <_>
          10 11 28 3 -1.</_>
        <_>
          24 11 14 3 2.</_></rects>
      <tilted>0</tilted></_>
    <_>
      <rects>
        <_>
          10 17 7 3 -1.</_>
        <_>
          10 18 7 1 3.</_></rects>
      <tilted>0</tilted></_>
    <_>
      <rects>
        <_>
          11 1 37 12 -1.</_>
        <_>
          11 5 37 4 3.</_></rects>
      <tilted>0</tilted></_>
    <_>
      <rects>
        <_>
          11 2 27 3 -1.</_>
        <_>
          11 3 27 1 3.</_></rects>
      <tilted>0</tilted></_>
    <_>
      <rects>
        <_>
          11 14 18 6 -1.</_>
        <_>
          11 14 9 3 2.</_>
        <_>
          20 17 9 3 2.</_></rects>
      <tilted>0</tilted></_>
    <_>
      <rects>
        <_>
          12 2 12 3 -1.</_>
        <_>
          12 3 12 1 3.</_></rects>
      <tilted>0</tilted></_>
    <_>
      <rects>
        <_>
          12 13 9 5 -1.</_>
        <_>
          15 13 3 5 3.</_></rects>
      <tilted>0</tilted></_>
    <_>
      <rects>
        <_>
          14 1 16 4 -1.</_>
        <_>
          14 3 16 2 2.</_></rects>
      <tilted>0</tilted></_>
    <_>
      <rects>
        <_>
          14 3 10 6 -1.</_>
        <_>
          14 3 5 3 2.</_>
        <_>
          19 6 5 3 2.</_></rects>
      <tilted>0</tilted></_>
    <_>
      <rects>
        <_>
          15 2 4 3 -1.</_>
        <_>
          15 3 4 1 3.</_></rects>
      <tilted>0</tilted></_>
    <_>
      <rects>
        <_>
          15 4 10 3 -1.</_>
        <_>
          20 4 5 3 2.</_></rects>
      <tilted>0</tilted></_>
    <_>
      <rects>
        <_>
          15 4 26 16 -1.</_>
        <_>
          15 4 13 8 2.</_>
        <_>
          28 12 13 8 2.</_></rects>
      <tilted>0</tilted></_>
    <_>
      <rects>
        <_>
          15 5 7 12 -1.</_>
        <_>
          15 11 7 6 2.</_></rects>
      <tilted>0</tilted></_>
    <_>
      <rects>
        <_>
          15 13 2 2 -1.</_>
        <_>
          15 13 1 1 2.</_>
        <_>
          16 14 1 1 2.</_></rects>
      <tilted>0</tilted></_>
    <_>
      <rects>
        <_>
          15 14 3 2 -1.</_>
        <_>
          16 14 1 2 3.</_></rects>
      <tilted>0</tilted></_>
    <_>
      <rects>
        <_>
          15 14 2 4 -1.</_>
        <_>
          16 14 1 4 2.</_></rects>
      <tilted>0</tilted></_>
    <_>
      <rects>
        <_>
          15 15 18 4 -1.</_>
        <_>
          15 15 9 2 2.</_>
        <_>
          24 17 9 2 2.</_></rects>
      <tilted>0</tilted></_>
    <_>
      <rects>
        <_>
          16 0 1 2 -1.</_>
        <_>
          16 1 1 1 2.</_></rects>
      <tilted>0</tilted></_>
    <_>
      <rects>
        <_>
          16 1 13 15 -1.</_>
        <_>
          16 6 13 5 3.</_></rects>
      <tilted>0</tilted></_>
    <_>
      <rects>
        <_>
          16 4 3 4 -1.</_>
        <_>
          17 4 1 4 3.</_></rects>
      <tilted>0</tilted></_>
    <_>
      <rects>
        <_>
          16 6 2 4 -1.</_>
        <_>
          16 8 2 2 2.</_></rects>
      <tilted>0</tilted></_>
    <_>
      <rects>
        <_>
          17 0 3 2 -1.</_>
        <_>
          18 0 1 2 3.</_></rects>
      <tilted>0</tilted></_>
    <_>
      <rects>
        <_>
          17 2 17 3 -1.</_>
        <_>
          17 3 17 1 3.</_></rects>
      <tilted>0</tilted></_>
    <_>
      <rects>
        <_>
          17 6 29 8 -1.</_>
        <_>
          17 10 29 4 2.</_></rects>
      <tilted>0</tilted></_>
    <_>
      <rects>
        <_>
          17 7 3 6 -1.</_>
        <_>
          18 7 1 6 3.</_></rects>
      <tilted>0</tilted></_>
    <_>
      <rects>
        <_>
          17 7 30 4 -1.</_>
        <_>
          27 7 10 4 3.</_></rects>
      <tilted>0</tilted></_>
    <_>
      <rects>
        <_>
          17 9 12 4 -1.</_>
        <_>
          21 9 4 4 3.</_></rects>
      <tilted>0</tilted></_>
    <_>
      <rects>
        <_>
          17 16 3 2 -1.</_>
        <_>
          18 16 1 2 3.</_></rects>
      <tilted>0</tilted></_>
    <_>
      <rects>
        <_>
          18 0 12 5 -1.</_>
        <_>
          22 0 4 5 3.</_></rects>
      <tilted>0</tilted></_>
    <_>
      <rects>
        <_>
          18 3 27 7 -1.</_>
        <_>
          27 3 9 7 3.</_></rects>
      <tilted>0</tilted></_>
    <_>
      <rects>
        <_>
          18 6 18 12 -1.</_>
        <_>
          18 6 9 6 2.</_>
        <_>
          27 12 9 6 2.</_></rects>
      <tilted>0</tilted></_>
    <_>
      <rects>
        <_>
          18 7 3 2 -1.</_>
        <_>
          19 7 1 2 3.</_></rects>
      <tilted>0</tilted></_>
    <_>
      <rects>
        <_>
          18 14 4 2 -1.</_>
        <_>
          20 14 2 2 2.</_></rects>
      <tilted>0</tilted></_>
    <_>
      <rects>
        <_>
          19 0 5 3 -1.</_>
        <_>
          19 1 5 1 3.</_></rects>
      <tilted>0</tilted></_>
    <_>
      <rects>
        <_>
          19 0 15 7 -1.</_>
        <_>
          24 0 5 7 3.</_></rects>
      <tilted>0</tilted></_>
    <_>
      <rects>
        <_>
          19 2 15 9 -1.</_>
        <_>
          19 5 15 3 3.</_></rects>
      <tilted>0</tilted></_>
    <_>
      <rects>
        <_>
          19 3 1 3 -1.</_>
        <_>
          19 4 1 1 3.</_></rects>
      <tilted>0</tilted></_>
    <_>
      <rects>
        <_>
          19 5 27 2 -1.</_>
        <_>
          28 5 9 2 3.</_></rects>
      <tilted>0</tilted></_>
    <_>
      <rects>
        <_>
          19 7 3 1 -1.</_>
        <_>
          20 7 1 1 3.</_></rects>
      <tilted>0</tilted></_>
    <_>
      <rects>
        <_>
          19 8 14 6 -1.</_>
        <_>
          19 8 7 3 2.</_>
        <_>
          26 11 7 3 2.</_></rects>
      <tilted>0</tilted></_>
    <_>
      <rects>
        <_>
          19 9 3 4 -1.</_>
        <_>
          20 9 1 4 3.</_></rects>
      <tilted>0</tilted></_>
    <_>
      <rects>
        <_>
          19 12 12 3 -1.</_>
        <_>
          23 12 4 3 3.</_></rects>
      <tilted>0</tilted></_>
    <_>
      <rects>
        <_>
          19 13 22 4 -1.</_>
        <_>
          19 13 11 2 2.</_>
        <_>
          30 15 11 2 2.</_></rects>
      <tilted>0</tilted></_>
    <_>
      <rects>
        <_>
          20 1 8 4 -1.</_>
        <_>
          20 3 8 2 2.</_></rects>
      <tilted>0</tilted></_>
    <_>
      <rects>
        <_>
          20 2 27 18 -1.</_>
        <_>
          29 2 9 18 3.</_></rects>
      <tilted>0</tilted></_>
    <_>
      <rects>
        <_>
          20 6 3 2 -1.</_>
        <_>
          21 6 1 2 3.</_></rects>
      <tilted>0</tilted></_>
    <_>
      <rects>
        <_>
          20 7 3 1 -1.</_>
        <_>
          21 7 1 1 3.</_></rects>
      <tilted>0</tilted></_>
    <_>
      <rects>
        <_>
          20 8 1 3 -1.</_>
        <_>
          20 9 1 1 3.</_></rects>
      <tilted>0</tilted></_>
    <_>
      <rects>
        <_>
          20 10 22 6 -1.</_>
        <_>
          20 10 11 3 2.</_>
        <_>
          31 13 11 3 2.</_></rects>
      <tilted>0</tilted></_>
    <_>
      <rects>
        <_>
          20 11 3 2 -1.</_>
        <_>
          20 12 3 1 2.</_></rects>
      <tilted>0</tilted></_>
    <_>
      <rects>
        <_>
          20 18 2 2 -1.</_>
        <_>
          21 18 1 2 2.</_></rects>
      <tilted>0</tilted></_>
    <_>
      <rects>
        <_>
          21 4 3 5 -1.</_>
        <_>
          22 4 1 5 3.</_></rects>
      <tilted>0</tilted></_>
    <_>
      <rects>
        <_>
          21 6 6 14 -1.</_>
        <_>
          21 6 3 7 2.</_>
        <_>
          24 13 3 7 2.</_></rects>
      <tilted>0</tilted></_>
    <_>
      <rects>
        <_>
          21 7 3 2 -1.</_>
        <_>
          22 7 1 2 3.</_></rects>
      <tilted>0</tilted></_>
    <_>
      <rects>
        <_>
          21 7 3 11 -1.</_>
        <_>
          22 7 1 11 3.</_></rects>
      <tilted>0</tilted></_>
    <_>
      <rects>
        <_>
          22 0 2 12 -1.</_>
        <_>
          22 4 2 4 3.</_></rects>
      <tilted>0</tilted></_>
    <_>
      <rects>
        <_>
          23 1 5 3 -1.</_>
        <_>
          23 2 5 1 3.</_></rects>
      <tilted>0</tilted></_>
    <_>
      <rects>
        <_>
          23 5 3 4 -1.</_>
        <_>
          24 5 1 4 3.</_></rects>
      <tilted>0</tilted></_>
    <_>
      <rects>
        <_>
          23 7 2 8 -1.</_>
        <_>
          23 11 2 4 2.</_></rects>
      <tilted>0</tilted></_>
    <_>
      <rects>
        <_>
          23 8 3 1 -1.</_>
        <_>
          24 8 1 1 3.</_></rects>
      <tilted>0</tilted></_>
    <_>
      <rects>
        <_>
          23 10 3 3 -1.</_>
        <_>
          23 11 3 1 3.</_></rects>
      <tilted>0</tilted></_>
    <_>
      <rects>
        <_>
          23 15 3 3 -1.</_>
        <_>
          23 16 3 1 3.</_></rects>
      <tilted>0</tilted></_>
    <_>
      <rects>
        <_>
          24 4 2 2 -1.</_>
        <_>
          24 4 1 1 2.</_>
        <_>
          25 5 1 1 2.</_></rects>
      <tilted>0</tilted></_>
    <_>
      <rects>
        <_>
          24 6 21 5 -1.</_>
        <_>
          31 6 7 5 3.</_></rects>
      <tilted>0</tilted></_>
    <_>
      <rects>
        <_>
          24 7 3 1 -1.</_>
        <_>
          25 7 1 1 3.</_></rects>
      <tilted>0</tilted></_>
    <_>
      <rects>
        <_>
          24 7 3 5 -1.</_>
        <_>
          25 7 1 5 3.</_></rects>
      <tilted>0</tilted></_>
    <_>
      <rects>
        <_>
          24 7 3 6 -1.</_>
        <_>
          25 7 1 6 3.</_></rects>
      <tilted>0</tilted></_>
    <_>
      <rects>
        <_>
          24 12 6 3 -1.</_>
        <_>
          24 13 6 1 3.</_></rects>
      <tilted>0</tilted></_>
    <_>
      <rects>
        <_>
          24 17 24 2 -1.</_>
        <_>
          24 17 12 1 2.</_>
        <_>
          36 18 12 1 2.</_></rects>
      <tilted>0</tilted></_>
    <_>
      <rects>
        <_>
          25 3 3 8 -1.</_>
        <_>
          26 3 1 8 3.</_></rects>
      <tilted>0</tilted></_>
    <_>
      <rects>
        <_>
          25 3 2 15 -1.</_>
        <_>
          26 3 1 15 2.</_></rects>
      <tilted>0</tilted></_>
    <_>
      <rects>
        <_>
          25 7 5 8 -1.</_>
        <_>
          25 11 5 4 2.</_></rects>
      <tilted>0</tilted></_>
    <_>
      <rects>
        <_>
          25 8 3 2 -1.</_>
        <_>
          26 8 1 2 3.</_></rects>
      <tilted>0</tilted></_>
    <_>
      <rects>
        <_>
          25 12 9 6 -1.</_>
        <_>
          28 12 3 6 3.</_></rects>
      <tilted>0</tilted></_>
    <_>
      <rects>
        <_>
          26 1 10 6 -1.</_>
        <_>
          26 1 5 3 2.</_>
        <_>
          31 4 5 3 2.</_></rects>
      <tilted>0</tilted></_>
    <_>
      <rects>
        <_>
          26 4 3 6 -1.</_>
        <_>
          27 4 1 6 3.</_></rects>
      <tilted>0</tilted></_>
    <_>
      <rects>
        <_>
          26 6 3 4 -1.</_>
        <_>
          27 6 1 4 3.</_></rects>
      <tilted>0</tilted></_>
    <_>
      <rects>
        <_>
          26 6 3 6 -1.</_>
        <_>
          27 6 1 6 3.</_></rects>
      <tilted>0</tilted></_>
    <_>
      <rects>
        <_>
          26 7 10 2 -1.</_>
        <_>
          31 7 5 2 2.</_></rects>
      <tilted>0</tilted></_>
    <_>
      <rects>
        <_>
          26 12 9 3 -1.</_>
        <_>
          26 13 9 1 3.</_></rects>
      <tilted>0</tilted></_>
    <_>
      <rects>
        <_>
          26 13 3 6 -1.</_>
        <_>
          27 13 1 6 3.</_></rects>
      <tilted>0</tilted></_>
    <_>
      <rects>
        <_>
          26 14 20 3 -1.</_>
        <_>
          26 15 20 1 3.</_></rects>
      <tilted>0</tilted></_>
    <_>
      <rects>
        <_>
          27 0 2 3 -1.</_>
        <_>
          27 1 2 1 3.</_></rects>
      <tilted>0</tilted></_>
    <_>
      <rects>
        <_>
          27 1 12 2 -1.</_>
        <_>
          27 1 6 1 2.</_>
        <_>
          33 2 6 1 2.</_></rects>
      <tilted>0</tilted></_>
    <_>
      <rects>
        <_>
          27 2 4 2 -1.</_>
        <_>
          27 3 4 1 2.</_></rects>
      <tilted>0</tilted></_>
    <_>
      <rects>
        <_>
          27 7 3 1 -1.</_>
        <_>
          28 7 1 1 3.</_></rects>
      <tilted>0</tilted></_>
    <_>
      <rects>
        <_>
          27 12 3 4 -1.</_>
        <_>
          28 12 1 4 3.</_></rects>
      <tilted>0</tilted></_>
    <_>
      <rects>
        <_>
          27 12 7 3 -1.</_>
        <_>
          27 13 7 1 3.</_></rects>
      <tilted>0</tilted></_>
    <_>
      <rects>
        <_>
          27 13 15 5 -1.</_>
        <_>
          32 13 5 5 3.</_></rects>
      <tilted>0</tilted></_>
    <_>
      <rects>
        <_>
          27 14 1 6 -1.</_>
        <_>
          27 16 1 2 3.</_></rects>
      <tilted>0</tilted></_>
    <_>
      <rects>
        <_>
          27 15 3 3 -1.</_>
        <_>
          27 16 3 1 3.</_></rects>
      <tilted>0</tilted></_>
    <_>
      <rects>
        <_>
          27 19 6 1 -1.</_>
        <_>
          29 19 2 1 3.</_></rects>
      <tilted>0</tilted></_>
    <_>
      <rects>
        <_>
          28 5 9 7 -1.</_>
        <_>
          31 5 3 7 3.</_></rects>
      <tilted>0</tilted></_>
    <_>
      <rects>
        <_>
          28 11 12 2 -1.</_>
        <_>
          28 11 6 1 2.</_>
        <_>
          34 12 6 1 2.</_></rects>
      <tilted>0</tilted></_>
    <_>
      <rects>
        <_>
          28 13 18 3 -1.</_>
        <_>
          34 13 6 3 3.</_></rects>
      <tilted>0</tilted></_>
    <_>
      <rects>
        <_>
          29 0 3 1 -1.</_>
        <_>
          30 0 1 1 3.</_></rects>
      <tilted>0</tilted></_>
    <_>
      <rects>
        <_>
          29 1 3 3 -1.</_>
        <_>
          29 2 3 1 3.</_></rects>
      <tilted>0</tilted></_>
    <_>
      <rects>
        <_>
          29 13 2 3 -1.</_>
        <_>
          29 14 2 1 3.</_></rects>
      <tilted>0</tilted></_>
    <_>
      <rects>
        <_>
          30 6 16 10 -1.</_>
        <_>
          30 6 8 5 2.</_>
        <_>
          38 11 8 5 2.</_></rects>
      <tilted>0</tilted></_>
    <_>
      <rects>
        <_>
          30 10 3 8 -1.</_>
        <_>
          31 10 1 8 3.</_></rects>
      <tilted>0</tilted></_>
    <_>
      <rects>
        <_>
          30 10 5 3 -1.</_>
        <_>
          30 11 5 1 3.</_></rects>
      <tilted>0</tilted></_>
    <_>
      <rects>
        <_>
          30 12 3 4 -1.</_>
        <_>
          31 12 1 4 3.</_></rects>
      <tilted>0</tilted></_>
    <_>
      <rects>
        <_>
          31 0 14 2 -1.</_>
        <_>
          31 1 14 1 2.</_></rects>
      <tilted>0</tilted></_>
    <_>
      <rects>
        <_>
          31 1 18 16 -1.</_>
        <_>
          31 9 18 8 2.</_></rects>
      <tilted>0</tilted></_>
    <_>
      <rects>
        <_>
          31 4 5 12 -1.</_>
        <_>
          31 10 5 6 2.</_></rects>
      <tilted>0</tilted></_>
    <_>
      <rects>
        <_>
          31 7 3 4 -1.</_>
        <_>
          32 7 1 4 3.</_></rects>
      <tilted>0</tilted></_>
    <_>
      <rects>
        <_>
          33 1 13 3 -1.</_>
        <_>
          33 2 13 1 3.</_></rects>
      <tilted>0</tilted></_>
    <_>
      <rects>
        <_>
          33 3 3 1 -1.</_>
        <_>
          34 3 1 1 3.</_></rects>
      <tilted>0</tilted></_>
    <_>
      <rects>
        <_>
          34 4 2 2 -1.</_>
        <_>
          34 4 1 1 2.</_>
        <_>
          35 5 1 1 2.</_></rects>
      <tilted>0</tilted></_>
    <_>
      <rects>
        <_>
          34 5 1 3 -1.</_>
        <_>
          34 6 1 1 3.</_></rects>
      <tilted>0</tilted></_>
    <_>
      <rects>
        <_>
          34 11 12 2 -1.</_>
        <_>
          38 11 4 2 3.</_></rects>
      <tilted>0</tilted></_>
    <_>
      <rects>
        <_>
          35 13 3 3 -1.</_>
        <_>
          35 14 3 1 3.</_></rects>
      <tilted>0</tilted></_>
    <_>
      <rects>
        <_>
          37 1 5 2 -1.</_>
        <_>
          37 2 5 1 2.</_></rects>
      <tilted>0</tilted></_>
    <_>
      <rects>
        <_>
          37 1 9 3 -1.</_>
        <_>
          37 2 9 1 3.</_></rects>
      <tilted>0</tilted></_>
    <_>
      <rects>
        <_>
          37 14 8 6 -1.</_>
        <_>
          37 16 8 2 3.</_></rects>
      <tilted>0</tilted></_>
    <_>
      <rects>
        <_>
          37 15 6 1 -1.</_>
        <_>
          39 15 2 1 3.</_></rects>
      <tilted>0</tilted></_>
    <_>
      <rects>
        <_>
          37 17 4 2 -1.</_>
        <_>
          39 17 2 2 2.</_></rects>
      <tilted>0</tilted></_>
    <_>
      <rects>
        <_>
          38 4 3 7 -1.</_>
        <_>
          39 4 1 7 3.</_></rects>
      <tilted>0</tilted></_>
    <_>
      <rects>
        <_>
          38 8 4 6 -1.</_>
        <_>
          38 10 4 2 3.</_></rects>
      <tilted>0</tilted></_>
    <_>
      <rects>
        <_>
          39 0 2 2 -1.</_>
        <_>
          39 1 2 1 2.</_></rects>
      <tilted>0</tilted></_>
    <_>
      <rects>
        <_>
          39 8 3 2 -1.</_>
        <_>
          40 8 1 2 3.</_></rects>
      <tilted>0</tilted></_>
    <_>
      <rects>
        <_>
          39 12 7 3 -1.</_>
        <_>
          39 13 7 1 3.</_></rects>
      <tilted>0</tilted></_>
    <_>
      <rects>
        <_>
          40 7 2 10 -1.</_>
        <_>
          40 7 1 5 2.</_>
        <_>
          41 12 1 5 2.</_></rects>
      <tilted>0</tilted></_>
    <_>
      <rects>
        <_>
          40 14 3 6 -1.</_>
        <_>
          40 16 3 2 3.</_></rects>
      <tilted>0</tilted></_>
    <_>
      <rects>
        <_>
          41 4 3 6 -1.</_>
        <_>
          42 4 1 6 3.</_></rects>
      <tilted>0</tilted></_>
    <_>
      <rects>
        <_>
          41 4 3 8 -1.</_>
        <_>
          42 4 1 8 3.</_></rects>
      <tilted>0</tilted></_>
    <_>
      <rects>
        <_>
          41 14 5 3 -1.</_>
        <_>
          41 15 5 1 3.</_></rects>
      <tilted>0</tilted></_>
    <_>
      <rects>
        <_>
          41 17 6 1 -1.</_>
        <_>
          44 17 3 1 2.</_></rects>
      <tilted>0</tilted></_>
    <_>
      <rects>
        <_>
          42 2 3 9 -1.</_>
        <_>
          43 2 1 9 3.</_></rects>
      <tilted>0</tilted></_>
    <_>
      <rects>
        <_>
          42 16 8 2 -1.</_>
        <_>
          46 16 4 2 2.</_></rects>
      <tilted>0</tilted></_>
    <_>
      <rects>
        <_>
          44 4 2 9 -1.</_>
        <_>
          45 4 1 9 2.</_></rects>
      <tilted>0</tilted></_>
    <_>
      <rects>
        <_>
          47 7 2 6 -1.</_>
        <_>
          48 7 1 6 2.</_></rects>
      <tilted>0</tilted></_>
    <_>
      <rects>
        <_>
          48 8 1 3 -1.</_>
        <_>
          48 9 1 1 3.</_></rects>
      <tilted>0</tilted></_>
    <_>
      <rects>
        <_>
          48 14 2 1 -1.</_>
        <_>
          49 14 1 1 2.</_></rects>
      <tilted>0</tilted></_>
    <_>
      <rects>
        <_>
          49 10 1 4 -1.</_>
        <_>
          49 12 1 2 2.</_></rects>
      <tilted>0</tilted></_></features></cascade>
</opencv_storage>
